digraph Tree {
node [shape=box] ;
0 [label="女性 <= 0.5\ngini = 0.445\nsamples = 984\nvalue = [655, 329]"] ;
1 [label="age <= 12.5\ngini = 0.267\nsamples = 648\nvalue = [545, 103]"] ;
0 -> 1 [labeldistance=2.5, labelangle=45, headlabel="True"] ;
2 [label="pclass=3rd <= 0.5\ngini = 0.308\nsamples = 21\nvalue = [4, 17]"] ;
1 -> 2 ;
3 [label="gini = 0.0\nsamples = 13\nvalue = [0, 13]"] ;
2 -> 3 ;
4 [label="age <= 3.5\ngini = 0.5\nsamples = 8\nvalue = [4, 4]"] ;
2 -> 4 ;
5 [label="gini = 0.0\nsamples = 2\nvalue = [0, 2]"] ;
4 -> 5 ;
6 [label="age <= 7.5\ngini = 0.444\nsamples = 6\nvalue = [4, 2]"] ;
4 -> 6 ;
7 [label="gini = 0.0\nsamples = 2\nvalue = [2, 0]"] ;
6 -> 7 ;
8 [label="gini = 0.5\nsamples = 4\nvalue = [2, 2]"] ;
6 -> 8 ;
9 [label="pclass=1st <= 0.5\ngini = 0.237\nsamples = 627\nvalue = [541, 86]"] ;
1 -> 9 ;
10 [label="age <= 18.5\ngini = 0.176\nsamples = 501\nvalue = [452, 49]"] ;
9 -> 10 ;
11 [label="gini = 0.0\nsamples = 17\nvalue = [17, 0]"] ;
10 -> 11 ;
12 [label="age <= 22.5\ngini = 0.182\nsamples = 484\nvalue = [435, 49]"] ;
10 -> 12 ;
13 [label="gini = 0.291\nsamples = 34\nvalue = [28, 6]"] ;
12 -> 13 ;
14 [label="gini = 0.173\nsamples = 450\nvalue = [407, 43]"] ;
12 -> 14 ;
15 [label="age <= 60.5\ngini = 0.415\nsamples = 126\nvalue = [89, 37]"] ;
9 -> 15 ;
16 [label="age <= 28.5\ngini = 0.432\nsamples = 117\nvalue = [80, 37]"] ;
15 -> 16 ;
17 [label="gini = 0.5\nsamples = 14\nvalue = [7, 7]"] ;
16 -> 17 ;
18 [label="gini = 0.413\nsamples = 103\nvalue = [73, 30]"] ;
16 -> 18 ;
19 [label="gini = 0.0\nsamples = 9\nvalue = [9, 0]"] ;
15 -> 19 ;
20 [label="pclass=3rd <= 0.5\ngini = 0.44\nsamples = 336\nvalue = [110, 226]"] ;
0 -> 20 [labeldistance=2.5, labelangle=-45, headlabel="False"] ;
21 [label="age <= 38.5\ngini = 0.121\nsamples = 185\nvalue = [12, 173]"] ;
20 -> 21 ;
22 [label="age <= 37.5\ngini = 0.146\nsamples = 139\nvalue = [11, 128]"] ;
21 -> 22 ;
23 [label="age <= 17.5\ngini = 0.135\nsamples = 137\nvalue = [10, 127]"] ;
22 -> 23 ;
24 [label="gini = 0.0\nsamples = 15\nvalue = [0, 15]"] ;
23 -> 24 ;
25 [label="gini = 0.15\nsamples = 122\nvalue = [10, 112]"] ;
23 -> 25 ;
26 [label="pclass=1st <= 0.5\ngini = 0.5\nsamples = 2\nvalue = [1, 1]"] ;
22 -> 26 ;
27 [label="gini = 0.0\nsamples = 1\nvalue = [1, 0]"] ;
26 -> 27 ;
28 [label="gini = 0.0\nsamples = 1\nvalue = [0, 1]"] ;
26 -> 28 ;
29 [label="age <= 49.5\ngini = 0.043\nsamples = 46\nvalue = [1, 45]"] ;
21 -> 29 ;
30 [label="gini = 0.0\nsamples = 26\nvalue = [0, 26]"] ;
29 -> 30 ;
31 [label="age <= 50.5\ngini = 0.095\nsamples = 20\nvalue = [1, 19]"] ;
29 -> 31 ;
32 [label="gini = 0.32\nsamples = 5\nvalue = [1, 4]"] ;
31 -> 32 ;
33 [label="gini = 0.0\nsamples = 15\nvalue = [0, 15]"] ;
31 -> 33 ;
34 [label="age <= 19.5\ngini = 0.456\nsamples = 151\nvalue = [98, 53]"] ;
20 -> 34 ;
35 [label="age <= 13.0\ngini = 0.499\nsamples = 21\nvalue = [10, 11]"] ;
34 -> 35 ;
36 [label="age <= 5.5\ngini = 0.375\nsamples = 8\nvalue = [6, 2]"] ;
35 -> 36 ;
37 [label="gini = 0.444\nsamples = 3\nvalue = [1, 2]"] ;
36 -> 37 ;
38 [label="gini = 0.0\nsamples = 5\nvalue = [5, 0]"] ;
36 -> 38 ;
39 [label="age <= 15.5\ngini = 0.426\nsamples = 13\nvalue = [4, 9]"] ;
35 -> 39 ;
40 [label="gini = 0.0\nsamples = 1\nvalue = [0, 1]"] ;
39 -> 40 ;
41 [label="gini = 0.444\nsamples = 12\nvalue = [4, 8]"] ;
39 -> 41 ;
42 [label="age <= 38.5\ngini = 0.437\nsamples = 130\nvalue = [88, 42]"] ;
34 -> 42 ;
43 [label="age <= 32.097\ngini = 0.446\nsamples = 125\nvalue = [83, 42]"] ;
42 -> 43 ;
44 [label="gini = 0.43\nsamples = 118\nvalue = [81, 37]"] ;
43 -> 44 ;
45 [label="gini = 0.408\nsamples = 7\nvalue = [2, 5]"] ;
43 -> 45 ;
46 [label="gini = 0.0\nsamples = 5\nvalue = [5, 0]"] ;
42 -> 46 ;
}